digraph Tree {
node [shape=box] ;
0 [label="hair_length <= 0.51\nentropy = 1.584\nsamples = 371\nvalue = [117, 129, 125]"] ;
1 [label="has_soul <= 0.525\nentropy = 1.285\nsamples = 164\nvalue = [103, 19, 42]"] ;
0 -> 1 [labeldistance=2.5, labelangle=45, headlabel="True"] ;
2 [label="rotting_flesh <= 0.545\nentropy = 0.95\nsamples = 131\nvalue = [96, 3, 32]"] ;
1 -> 2 ;
3 [label="has_soul <= 0.3\nentropy = 1.101\nsamples = 63\nvalue = [32, 1, 30]"] ;
2 -> 3 ;
4 [label="hair_length <= 0.466\nentropy = 0.857\nsamples = 21\nvalue = [17, 1, 3]"] ;
3 -> 4 ;
5 [label="entropy = 0.485\nsamples = 19\nvalue = [17, 0, 2]"] ;
4 -> 5 ;
6 [label="entropy = 1.0\nsamples = 2\nvalue = [0, 1, 1]"] ;
4 -> 6 ;
7 [label="bone_length <= 0.234\nentropy = 0.94\nsamples = 42\nvalue = [15, 0, 27]"] ;
3 -> 7 ;
8 [label="entropy = 0.0\nsamples = 5\nvalue = [5, 0, 0]"] ;
7 -> 8 ;
9 [label="entropy = 0.842\nsamples = 37\nvalue = [10, 0, 27]"] ;
7 -> 9 ;
10 [label="bone_length <= 0.523\nentropy = 0.382\nsamples = 68\nvalue = [64, 2, 2]"] ;
2 -> 10 ;
11 [label="hair_length <= 0.475\nentropy = 0.119\nsamples = 62\nvalue = [61, 1, 0]"] ;
10 -> 11 ;
12 [label="entropy = 0.0\nsamples = 55\nvalue = [55, 0, 0]"] ;
11 -> 12 ;
13 [label="entropy = 0.592\nsamples = 7\nvalue = [6, 1, 0]"] ;
11 -> 13 ;
14 [label="has_soul <= 0.402\nentropy = 1.459\nsamples = 6\nvalue = [3, 1, 2]"] ;
10 -> 14 ;
15 [label="entropy = 0.811\nsamples = 4\nvalue = [3, 1, 0]"] ;
14 -> 15 ;
16 [label="entropy = 0.0\nsamples = 2\nvalue = [0, 0, 2]"] ;
14 -> 16 ;
17 [label="has_soul <= 0.759\nentropy = 1.503\nsamples = 33\nvalue = [7, 16, 10]"] ;
1 -> 17 ;
18 [label="rotting_flesh <= 0.504\nentropy = 1.569\nsamples = 25\nvalue = [7, 8, 10]"] ;
17 -> 18 ;
19 [label="bone_length <= 0.341\nentropy = 1.4\nsamples = 15\nvalue = [2, 8, 5]"] ;
18 -> 19 ;
20 [label="entropy = 0.971\nsamples = 5\nvalue = [2, 0, 3]"] ;
19 -> 20 ;
21 [label="entropy = 0.722\nsamples = 10\nvalue = [0, 8, 2]"] ;
19 -> 21 ;
22 [label="has_soul <= 0.561\nentropy = 1.0\nsamples = 10\nvalue = [5, 0, 5]"] ;
18 -> 22 ;
23 [label="entropy = 0.0\nsamples = 3\nvalue = [0, 0, 3]"] ;
22 -> 23 ;
24 [label="entropy = 0.863\nsamples = 7\nvalue = [5, 0, 2]"] ;
22 -> 24 ;
25 [label="entropy = 0.0\nsamples = 8\nvalue = [0, 8, 0]"] ;
17 -> 25 ;
26 [label="hair_length <= 0.677\nentropy = 1.276\nsamples = 207\nvalue = [14, 110, 83]"] ;
0 -> 26 [labeldistance=2.5, labelangle=-45, headlabel="False"] ;
27 [label="has_soul <= 0.32\nentropy = 1.347\nsamples = 133\nvalue = [14, 46, 73]"] ;
26 -> 27 ;
28 [label="bone_length <= 0.425\nentropy = 0.918\nsamples = 15\nvalue = [10, 0, 5]"] ;
27 -> 28 ;
29 [label="hair_length <= 0.549\nentropy = 0.779\nsamples = 13\nvalue = [10, 0, 3]"] ;
28 -> 29 ;
30 [label="entropy = 0.918\nsamples = 3\nvalue = [1, 0, 2]"] ;
29 -> 30 ;
31 [label="entropy = 0.469\nsamples = 10\nvalue = [9, 0, 1]"] ;
29 -> 31 ;
32 [label="entropy = 0.0\nsamples = 2\nvalue = [0, 0, 2]"] ;
28 -> 32 ;
33 [label="bone_length <= 0.46\nentropy = 1.154\nsamples = 118\nvalue = [4, 46, 68]"] ;
27 -> 33 ;
34 [label="has_soul <= 0.693\nentropy = 0.988\nsamples = 57\nvalue = [3, 11, 43]"] ;
33 -> 34 ;
35 [label="entropy = 0.876\nsamples = 52\nvalue = [3, 7, 42]"] ;
34 -> 35 ;
36 [label="entropy = 0.722\nsamples = 5\nvalue = [0, 4, 1]"] ;
34 -> 36 ;
37 [label="rotting_flesh <= 0.375\nentropy = 1.084\nsamples = 61\nvalue = [1, 35, 25]"] ;
33 -> 37 ;
38 [label="entropy = 0.0\nsamples = 8\nvalue = [0, 0, 8]"] ;
37 -> 38 ;
39 [label="entropy = 1.03\nsamples = 53\nvalue = [1, 35, 17]"] ;
37 -> 39 ;
40 [label="has_soul <= 0.365\nentropy = 0.571\nsamples = 74\nvalue = [0, 64, 10]"] ;
26 -> 40 ;
41 [label="has_soul <= 0.302\nentropy = 0.722\nsamples = 5\nvalue = [0, 1, 4]"] ;
40 -> 41 ;
42 [label="entropy = 0.0\nsamples = 1\nvalue = [0, 1, 0]"] ;
41 -> 42 ;
43 [label="entropy = 0.0\nsamples = 4\nvalue = [0, 0, 4]"] ;
41 -> 43 ;
44 [label="rotting_flesh <= 0.501\nentropy = 0.426\nsamples = 69\nvalue = [0, 63, 6]"] ;
40 -> 44 ;
45 [label="rotting_flesh <= 0.492\nentropy = 0.619\nsamples = 39\nvalue = [0, 33, 6]"] ;
44 -> 45 ;
46 [label="entropy = 0.494\nsamples = 37\nvalue = [0, 33, 4]"] ;
45 -> 46 ;
47 [label="entropy = 0.0\nsamples = 2\nvalue = [0, 0, 2]"] ;
45 -> 47 ;
48 [label="entropy = 0.0\nsamples = 30\nvalue = [0, 30, 0]"] ;
44 -> 48 ;
}